{"hidden":[{"weights":[1.7984502699519427,-1.7039062072496598,-1.9879593113852028,1.617022584564524,1.5859044911051554,0.9751666098995487,-0.507500931012495,0.9575465022379143,0.219221668562775,-0.9941960957801605,-0.5216916360808866,0.6039454391843831,0.00244135578231561,0.22025579102319676],"bias":-0.16584416627538853},{"weights":[-0.42986605608984924,-2.4683219678135306,-1.861662053116238,1.4095948265348972,1.3798185527062508,2.049432526086182,-0.24153738224084947,0.9034647479392194,1.1694601954979589,-1.433294064436698,0.6003737833627859,-0.22474355395714476,-0.21532635115255,1.0732388028246593],"bias":0.7078550024493365},{"weights":[1.3427999624689768,-2.6293591525979028,-1.952308182578516,1.5231022976265736,1.2285233188243978,1.1829595991624773,-0.7807131014128224,1.4339538400689136,-0.05402675259217968,-0.2753296583053187,-0.4862462928859876,1.0551622657604676,0.1749609819423622,0.5374305123173173],"bias":0.17192609746650736},{"weights":[-0.6446197470800968,1.6691323056137943,2.4763320736300742,-0.8539955318460835,-0.07912968016511741,-1.2738543814197076,0.7328150652932228,-0.5079302985914916,-0.9702867460922664,1.716194365575085,-0.3668464892007079,-0.8581620648286203,-0.05145471312969315,-0.0980139020251553],"bias":0.04624908889317074},{"weights":[-3.1331583555568754,1.1759941070035373,1.6012621061607544,-1.8161477501153038,-2.009619002130497,-0.9634090907704028,2.0130949415691126,-0.18551546618831008,0.8504217435430187,0.5123429586617404,-0.5727305433936393,-0.3930272089637925,0.2122313137485503,-0.6719266083891144],"bias":1.2577240318062286},{"weights":[0.2536457870347124,-1.8042986034573247,-0.703237795339166,1.1950661788079566,1.7151440494595318,1.713802111084855,-0.6506876086887547,0.024336160445323184,0.5554086356784403,-0.49955544203601404,1.3846606473116063,-0.8649155476071527,-0.6445479639807099,1.4434207501808947],"bias":0.20859405155600563},{"weights":[-0.4998474696814188,-1.9128407568346608,-0.5664527633348158,0.7935056283060722,1.3817400354979004,0.6358607131308904,-0.5226800196829771,0.2035204924953522,0.36991773731865624,0.493034853570167,0.5883778630701914,-1.02700417068142,-0.29143469529326815,0.9887724069650724],"bias":-0.7794607823983435},{"weights":[-2.54370212193556,1.3182218909948344,0.05167622771352515,-1.9613908511151723,-1.4850163834398373,-0.9422847587448563,0.9075154640633825,-0.94283511287701,1.1825848458561974,0.006805594248272561,-0.18072729981733968,0.3671457992231077,0.02148715940569098,0.20205377002755964],"bias":1.2470483914765411},{"weights":[0.8612415886762242,-2.351704891598696,-1.658027061132356,1.6873020300877961,1.3040018124965485,0.3188710177971519,-0.2119012490705955,1.4931571644224337,-0.21179901140637808,-0.4301645396762008,-0.4591796519275574,0.7775909447220365,0.34214475870208627,0.6582609619824302],"bias":0.3136856019140202},{"weights":[-1.763771388293919,-0.6040257893765464,0.7808991071477634,-1.1198322064089645,-0.44179638118664977,-0.10670863421777431,0.7079480579855562,0.3860424684487871,1.0268221601722278,-0.034702076758408626,0.22418104304729972,0.37975638163705966,0.49508673802190256,0.5510763649542988],"bias":0.49830474477196407},{"weights":[0.6152811207469099,-0.9104271877857375,-0.1611946644491868,0.8825061902750994,1.4229452774554994,0.18973459440179963,-0.4921406859146754,1.1735238197220326,-0.11895939553122788,0.6786701490741722,-0.4826536728717682,-0.25204435387041996,0.014960229391534902,1.0381556888950532],"bias":-0.8082131374510969},{"weights":[-2.857901328294257,1.3156595861943798,0.880664922018059,-2.3515956649071796,-2.161362554875895,-1.1126919492169474,1.4326722056321262,-1.4054399419140913,1.5624847785034008,-0.6572878952367424,-0.3561129271354701,0.33229878033340304,0.24894309527571273,-0.6536130290171176],"bias":1.198685737392763},{"weights":[-1.4025845821499845,1.727978829021634,1.5140949675237232,-1.8242446391615066,-1.049027774110153,-0.4364302061525131,0.9447485141605406,-1.180875333136528,-0.3036874676572205,-0.05557186970037197,0.24126459460553565,-0.413496585206859,0.08666423765409488,0.22227913448778544],"bias":-0.12252494714092098},{"weights":[1.1587880050919146,-1.2324204169434565,0.38175446709443855,1.2868237237088846,1.1862947328729645,0.8828715013356395,-0.7904488848334772,-0.04201481234694679,0.40825102033200955,-0.2899765255676203,0.9377057593707605,-0.8435058153482761,-0.19975817347438463,1.0170949304902348],"bias":-0.41398508974983517}],"output":[{"weights":[-1.9647959760374922,-2.942872966286423,-2.697179996345278,2.6131543976642306,1.2607808588951217,-2.2585274820953263,-1.9353623715030788,0.3956913069469446,-2.468988815923505,-0.29346089726710844,-0.8280696127737293,0.625691498061366,1.7816552528054161,-1.2204369234512733],"bias":-0.1509437850066321},{"weights":[1.5696495980150083,0.23143017567725077,1.9303294499088317,-0.048418273572873594,-2.9486442486557656,0.8684883940640606,0.9843285101929227,-3.191342027786796,1.7718092331377875,-1.3233224160976567,1.7577328958897955,-3.8552129303246425,-2.062933433628287,1.2730856566299382],"bias":-0.5992727144303414},{"weights":[1.3634916554266194,0.5899052932645611,0.4082133106352565,-1.0679528643751741,-2.8599175544488213,1.7741577067062588,-0.09374404255573048,-1.572875854527303,-0.027842359880083226,-1.8472806497504588,-0.195102778753157,-2.119184620818405,-0.7171613509025474,1.4532678318727044],"bias":-0.5161082398914513},{"weights":[-1.821905842690033,-2.475719649384136,-1.6781662966042974,1.4270548013531121,1.1726652950128997,-2.382623423228892,-1.7261162235638676,0.018297938312285475,-1.248011313185061,-0.1285407284909772,-0.7576109744297281,0.6168904749736647,0.616085599685551,-0.9804407227497203],"bias":-0.8832983878319162}]}