{"hidden":[{"weights":[-3.0785150527453706,3.4729004937213954,1.9692638188533937,-1.8578027855029122,-1.890312759656608,-1.0344038097444637,0.943598750722545,-2.35785366158125,0.37413685673654556,-0.6824417516346734,0.8301890243315746,-0.5619718616987734,0.20778932220872295,0.5540478283709049],"bias":0.056517072459104034},{"weights":[-0.5951775976790488,2.0341051144201847,0.11640498804940036,-1.2358547384109242,-2.0627094784288533,-1.2110691086372771,0.31296565414434985,-0.0651192891043624,-0.3415753170949453,0.5121894185135886,-1.6402150614380067,0.45159097182535474,1.0058521185431128,-0.5668946799451812],"bias":-0.314986109023875},{"weights":[1.8358686157148922,-2.5696949163155898,-1.847794603654059,1.9896090122883365,1.8021131826583225,1.301770565517146,-0.9645049197864056,0.9796533174278668,0.35612050112264726,-0.748632819314094,-0.9811495344480503,1.4858737514949951,0.348618227497916,0.22420344983579246],"bias":0.0794532480907718},{"weights":[-1.7838368948082366,1.5143864909923241,1.5167386146428972,-1.8228549850659552,-2.550898157393978,-1.9450483956450437,1.061259135854833,-0.9155883530603447,0.05911364432545999,1.101009675972999,-0.9560574233915662,0.18481714620231107,0.1572693612213541,-0.8542682215624307],"bias":-0.5905237197137001},{"weights":[-1.223162731682013,0.8423497216831772,-0.05794537487907561,-0.6293380503049134,-1.17544673891682,-0.9359964910097742,1.1969813648366052,0.05641607222565836,-0.1818037844397239,0.6750926878059927,-1.5056269206957462,0.47754521750244383,0.21418300420665257,0.23561992269028514],"bias":-0.4811051786946855},{"weights":[0.4922527155535305,-2.9368045538186616,-1.7784586477358666,2.3916111999896623,2.091845500269876,2.178623785883318,-1.1716246080885955,1.7997612909411569,1.0285350638850193,-0.3955936029213398,0.9668000738359668,-0.3559329045302093,-0.6756584354240133,1.7827029589941814],"bias":0.3352273842107149},{"weights":[0.5100789104198903,-3.010243043542931,-1.5221295117911762,1.802436281945698,1.7307616170367393,1.7441344828621372,-0.13719083829215134,0.8933890639697065,0.714931934431646,-1.291434785749778,0.43922342749126164,0.19568796094112556,-0.5923256648715037,1.2052095827441722],"bias":0.744514339514072},{"weights":[-3.4406421534298675,0.2602778408891329,0.8995517658599927,-1.5938349689007758,-1.0647770671696528,-0.7996382109826342,1.39749774368436,0.5243740254947782,1.0295346119730973,0.1696336444939506,-0.3307416077519283,0.4966755035694141,0.3182926277950856,-0.2204752918015279],"bias":0.9760768487114716},{"weights":[-0.20908341368601913,0.16861325765346372,-1.5860804933463215,0.5888970077649341,-0.3444684076036322,0.8127131979378913,0.05552040114181107,-1.5507413746868177,0.781910842145563,-1.5832015643515318,0.09978411552238489,0.29302805827860856,-0.31402478590891036,1.057358247880748],"bias":0.6185499692813404},{"weights":[-3.7205283658810857,1.257149655630275,0.9075386889061119,-2.604700943552728,-1.2677863603173378,-1.2061847395827423,0.6460545511389226,-0.19698183805520286,0.6843812114834733,0.0752235303513403,0.6830146627910361,0.26956010691173393,0.2686210814599414,0.4355977941407261],"bias":0.4819787063462072}],"output":[{"weights":[2.7355993438822117,1.5343741779110855,-3.2670847843852115,2.2599449863038656,0.19199055964114534,-3.614964194688669,-3.359013609280237,-0.1842602530666679,-1.0266248747435207,1.2998506195424568],"bias":-1.1690883739585785},{"weights":[-4.2156155722370485,-1.788699947643185,2.104243732306465,-2.1970792802612755,-1.5166806548789593,3.180170369734503,1.6258195728211575,-2.1954023701099596,-2.109124950305148,-3.0119306478022785],"bias":0.4455764968516237},{"weights":[-0.9028103206286678,-1.8577378551255688,1.2850651420350498,-2.5871833948669125,-1.8160207567707856,1.0309415910338886,1.0683050281706812,-2.742410635000894,1.6329062234104887,-2.745895462613721],"bias":-0.5558929213750713},{"weights":[1.5673829694137713,1.016366647803278,-2.1722805580920546,1.0556730204891625,0.09934774892445723,-2.7791280922730155,-2.170697110253034,0.26663716691689293,-1.5093367317042645,0.7519221812739847],"bias":-1.701858431882857}]}