{"hidden":[{"weights":[-2.264193,1.428651,1.131183,-1.867497,-1.803122,-1.426039,1.411933,-0.841569,0.887693,0.443801,-0.984870,0.373281,0.939557,-0.584977],"bias":0.372616},{"weights":[-1.050068,1.291258,0.604803,-0.946995,-1.227581,-1.228929,1.033150,0.167323,0.336509,0.895732,-1.034506,0.175933,0.595742,-0.382740],"bias":-0.428523},{"weights":[0.367986,-2.333954,-2.463048,1.488031,0.525895,1.636414,-0.306375,1.225239,0.556652,-0.578822,0.147240,0.658213,-0.240333,0.714206],"bias":0.523290},{"weights":[-0.946831,1.688867,0.079582,-1.420521,-1.397119,-1.396829,0.937973,-0.566472,-0.346563,0.463634,-1.451646,0.210812,1.166648,-0.408864],"bias":-0.296084},{"weights":[-1.686141,0.157195,0.046641,-1.038648,-0.258440,-0.417544,0.087513,0.114778,0.225688,-0.012605,-0.092555,0.828214,0.355668,0.143137],"bias":-0.037583},{"weights":[1.509249,-2.092552,-0.467208,1.658213,1.859832,1.249796,-1.103514,0.493291,0.415426,-0.326040,1.258538,-0.870995,-0.320507,1.558628],"bias":0.004613},{"weights":[-2.598263,1.085509,0.542801,-1.721933,-0.601194,-0.412867,0.338599,0.367657,0.794771,0.068729,0.817592,0.125468,0.282310,0.220098],"bias":-0.089807},{"weights":[2.425701,-1.141511,-2.046838,1.445915,1.181929,0.881222,-1.183437,-0.036641,-0.198397,-0.880514,-0.553468,0.998695,-0.000513,0.336287],"bias":-0.470631},{"weights":[-3.799369,1.726477,0.925766,-2.127977,-1.203744,-0.711989,0.666997,-0.384031,1.038147,-0.480228,1.282647,0.465511,0.480925,0.767223],"bias":0.056393},{"weights":[-0.034430,2.688001,1.916483,-1.791856,-2.354503,-1.899920,0.473219,-1.097021,-0.680074,0.763118,-1.148791,0.398981,0.660725,-1.505443],"bias":-0.914896},{"weights":[-0.449087,-0.369418,0.280106,-0.420653,0.268297,-0.868613,0.036361,0.833520,0.216461,0.937280,-0.356466,-0.169355,0.163886,0.239889],"bias":-0.085122},{"weights":[-1.715298,-0.628894,-0.622397,-0.963962,-0.161625,-0.468106,0.433394,0.368035,1.235592,-0.530012,-0.269522,-0.096941,0.293458,0.207121],"bias":0.172680},{"weights":[0.411464,-1.364812,0.039448,1.587189,1.568807,1.017738,-0.893322,0.429035,0.591641,0.541311,0.180695,-0.811935,-0.155201,1.134967],"bias":-0.881197},{"weights":[1.737144,-3.205182,-2.621518,2.322569,2.151726,1.374522,-1.154274,2.740996,-0.069213,0.163880,-0.746968,1.169043,0.434427,-0.129961],"bias":0.197665}],"output":[{"weights":[1.488493,0.979045,-2.698887,1.330432,-0.325130,-2.230961,0.930788,-2.015096,0.958556,3.147698,0.251787,-0.699044,-1.585079,-3.756287],"bias":-1.299238},{"weights":[-2.974526,-1.407490,0.467933,-2.145998,-1.334019,1.725436,-2.087498,1.238803,-3.941191,-2.021424,0.530224,-1.293600,1.441649,3.249121],"bias":-0.745634},{"weights":[-2.078221,-1.700371,0.341049,-1.372432,-1.070484,1.644647,-1.761668,2.098096,-2.159700,-0.890356,-1.363199,-1.440396,0.765750,-0.225018],"bias":-0.183474},{"weights":[0.479052,0.465122,-2.311785,0.938552,0.277475,-1.963863,0.489598,-1.586341,1.073654,2.108049,-0.080152,-0.613887,-1.592328,-2.414415],"bias":-1.670871}]}