{"hidden":[{"weights":[-0.34508995117739794,0.26431731752467785,-0.318400692536618,0.020264952099420894,-0.18845479167782633,0.0776737676633629,0.558939509824442,0.6146321750752205,0.14452707511310142,0.21923483029971114,-0.8288345846930489,0.37279867621786283,1.0719902777747485,0.6405602963172842],"_out":null,"bias":-0.42497256125382005},{"weights":[0.4474785558784638,-2.430307144396073,-0.40832638145489614,1.7731047690283404,2.4072555286565045,1.3984501213933387,-0.5557733578713685,0.489682678293686,-0.1598647579355136,0.16622140460668125,1.5734244725817574,-1.5854224694316863,-0.2749399965134111,1.6297323526806289],"_out":null,"bias":-0.2779145651076462},{"weights":[-1.990005033078295,2.4071245425410437,1.6997227945544773,-2.3931212973479172,-1.9037753464654104,-0.967340701172821,0.626599863909962,-1.7231197800142486,-0.1811408683895179,0.19053410200862694,0.6946163066842306,-0.5698218436249616,-0.09554792938118864,0.39916870658306447],"_out":null,"bias":-0.2104947890321859},{"weights":[1.5364794764733254,-2.445752090626044,-1.8947056125828763,1.5441033523622336,1.4158068169234892,0.6412194581326722,-0.7958171901447826,1.36416521410643,0.012641534935745711,-0.5274537660332073,0.16953511772726063,0.5723369110536882,-0.24445579611711926,0.618620150474657],"bias":-0.5842917083825981},{"weights":[0.9198060039211933,-1.934585806085868,-0.32486342275085983,1.4808191113464726,2.421730309860994,0.39231084695467533,-1.3820465970483478,0.9658586173655648,-0.3574520748156176,0.5186743114064895,-0.699216783926314,-0.6871476968466345,0.6695806320218538,0.6063184859367743],"bias":-1.3548134265525653},{"weights":[-0.02114381402996683,-2.040825065737364,-0.574344725243751,1.6165115113081368,1.0177469549349325,1.2130482000625666,-0.514437915264093,1.0733932225733267,-0.11701114292341629,0.017875093077699432,0.48391690416969063,-0.14200470293226486,-0.35349510992143274,1.5774532409834003],"bias":-0.19970294498687796},{"weights":[-4.115810682344056,0.6065707264289948,1.3380633450839776,-2.556415113073207,-1.585519481902379,-0.8898998231651645,2.024584993643648,0.3889123902559649,1.7244294434847272,0.10446676975345374,-0.35454306407871394,0.27469826083559656,-0.2675808893757467,0.047748233783196516],"bias":1.1439362117658163},{"weights":[-2.4023829328740676,1.4856147855475907,2.186414449258105,-1.7442476011320567,-1.7965772552080799,-0.8729928262537252,1.496134053125595,-1.0023877518483422,-0.2914004126146676,1.3464617596082853,-0.09817416119732195,-0.5141893856444384,0.17069033363168282,-0.4336579601074745],"bias":-0.33442969118546334},{"weights":[-1.3232206228171257,1.3596488948002947,1.142524101577253,-1.3334468739360452,-1.832094998199949,-1.6194364190892476,1.7462310566410495,-0.45213247583572247,-0.3011228007194575,0.8531464592242834,-1.8501841570623896,0.48061764225471465,1.2594609906826877,-0.9570834336421021],"bias":-0.35498393117167465},{"weights":[-1.5432095135607689,-0.9112422436858111,-0.8675718511413693,-0.22074149167581122,0.14998388791559614,0.7835117902122886,-0.08333114286780993,-0.40970188884139225,0.6130980765076506,-0.00016031906976412928,0.4388421643066778,-0.1047588470432662,0.19846219277587526,1.3950011283185035],"bias":-0.20343029531828946},{"weights":[1.858525030815639,-2.875969330553693,-1.8916627653274942,2.0743243468176584,1.567446451140804,1.6976705974786683,-1.0887739647341108,1.6506980804653173,-0.01580744447765568,-1.003872542954632,-0.6586858039709862,1.065507443036072,-0.1249487962237163,0.10583175166197716],"bias":-0.21767759352658478},{"weights":[-0.16958308969165364,-2.202641389924415,-2.616106056691541,0.8600746016917945,0.19876009247295856,0.9024466206593699,0.18357062416235803,0.26354900338099024,1.2079142211389122,-1.1661162152155438,0.7483451659919457,0.7643178695177567,-0.0425099288991498,0.8792572604462584],"bias":0.6898912393911584}],"output":[{"weights":[-0.543292744677889,-2.7073823822065393,2.373257468517096,-2.1833899062554356,-1.4107197840545904,-2.1569685413884754,0.5905005085412196,2.197258184582231,1.7239608952051269,-1.6300250059633543,-2.9004862726066656,-2.9040413593079317],"bias":-0.6763223584021234},{"weights":[-0.6327612301819823,2.3393999587911023,-3.0636031105843107,1.8611122113478917,2.642863526347913,1.4983700565273317,-3.821327268305607,-1.9068116496329608,-2.3774970643556976,-1.0800131467968013,2.232077889048904,-0.5425790735393207],"bias":-1.8015562065347808},{"weights":[-1.1195110939214654,1.844083688554377,-1.1037507347828917,0.5365707552343176,0.7914730279731862,0.17566772202736342,-3.4613339359710675,-2.085259724894689,-2.667625740924124,-0.6804679361995778,1.253875186582891,0.2918166751165927],"bias":-0.6146476501471195},{"weights":[0.01679516662356316,-2.667685626307545,1.0242562691965433,-1.719014184118042,-1.5596321805881819,-1.6247576062600722,0.29130241343965707,1.3014940117692577,1.4201598945645357,-1.335428804397753,-2.140724735443178,-2.0614754148370067],"bias":-0.23970117524888948}]}