{"hidden":[{"weights":[1.5739906369862304,-3.484688677778851,-2.756882542159739,1.952489906600704,2.1069645251842952,1.0115288364921287,-0.6645385870586408,1.9348807753787505,0.4154507209824185,-0.6901829243012001,-0.7351898581678551,1.1765959540955642,0.26207803562817494,0.2605657453040805],"bias":0.12059935999848027},{"weights":[-1.2471122394369127,-1.4522445395195251,-1.2508685808698483,-0.11003644021476888,-0.24277289181996062,0.9175060536680428,0.47047951218772655,-0.3054677271727386,1.4940124417663125,-1.211052295781904,0.2740740686370142,0.005361077624796347,-0.2675382371885696,0.5214468406898395],"bias":0.07359201523900963},{"weights":[-0.08135788874207325,-2.7850743759870173,-0.6081539504558592,1.9385905547671562,1.9406668826209101,2.3247785876194182,-0.42381018046797,0.9893317340782511,0.311357275661293,-0.48671661747650713,1.4098263699416405,-1.1885573189573522,-0.2112806629203394,2.019116173494344],"bias":0.11764910441874196},{"weights":[-3.2006402724714813,1.2769760474136067,0.8194110164744991,-1.7941721413420975,-1.0063433763433396,-0.3875363118262451,0.7688155743157267,-0.40284086531046054,0.5528635932193614,-0.07839142518460203,0.5525906361306295,0.24413319655388624,0.18201712265066952,0.7982788850162156],"bias":0.6452147802975535},{"weights":[2.6855387617917437,-1.2991007889867447,-2.4870004671456694,1.78004625700782,1.4286747277308334,1.2766045726564874,-1.4561123198263943,0.2840136185430535,0.28659216225010664,-1.1688084971982775,-0.29701682071709484,1.0592187077361659,0.5570512817914469,-0.07339444577729173],"bias":-0.2689853063464592},{"weights":[1.089291604965815,-1.16792085937555,-0.5696107669980695,1.6012499219055383,0.5138785512524625,0.13737083299768305,-0.5562008237606385,0.7980488063895178,-0.030976980396600608,-0.29798869341584294,-0.16490283438510656,0.4398948650438041,0.03885956226142768,0.27557117309143503],"bias":-0.6751994079939365},{"weights":[0.11101271264255726,2.3597508268486758,0.6893661454335105,-1.7622396084627112,-1.9282277228850777,-1.0319221398625105,0.6440920218592854,-0.8767538455186706,-0.16424136534831638,0.7085175344155916,-1.7158593313438562,0.27406355309327635,0.6349698268752453,-0.33182692004596775],"bias":-0.8719234684340437},{"weights":[1.463165318966783,-2.449364686860251,-1.4484990846647963,1.4937766609593408,2.2566162334803974,1.141811645689765,-1.3019990916179383,0.8740000427375721,0.03964764472187679,-0.3736110337362632,0.7357769622836009,-0.46780026482887727,-0.4507445943217268,1.175247088595639],"bias":-0.5805179284036656},{"weights":[-2.5137520994588334,1.9269444449439843,2.005712335865565,-2.4453824011831435,-1.7153873509558826,-0.9230082031301291,0.6804928250947178,-1.0913791851900756,0.016290437014903538,0.31769411539842013,1.1115474364758193,-0.10669618664385146,0.35755875068750254,0.25085034166864023],"bias":-0.2573776681384341},{"weights":[-3.5188418689166494,2.1483945837768212,0.2725619814828756,-2.690945909096176,-2.046560619623687,-1.8951880407496147,2.0439037863929905,-0.6874165611728702,0.7088560633691987,0.24717525876264698,-1.8082754455402519,0.5844207744690781,0.5876901882834756,-0.28105703449892977],"bias":0.9879695483275854}],"output":[{"weights":[-3.77824300375713,-1.519202681582629,-3.4253212719680732,0.8426396241853111,-2.4892033158040547,-1.4706727308892464,2.494286505754012,-2.299673551970087,1.8542629463439695,1.3667726230013961],"bias":-0.25611143768727435},{"weights":[2.481962954361854,-1.4762060659932421,1.5413703572045252,-3.07894451194695,1.7184353583800156,1.200248664564432,-2.0610178565117843,2.150956597929607,-3.0089603294319187,-4.059351703930822],"bias":-1.1922809664724159},{"weights":[0.04561966091110228,-0.6420734931450663,1.0413609932209007,-1.9507875775328056,2.4438849153206936,0.5051569286342896,-1.435768098690108,1.0275094892560017,-2.0167928316234187,-3.504105203580151],"bias":-1.2865951442096824},{"weights":[-2.4801011460376823,-1.7720377812407178,-3.2386826682688645,0.3102742471194631,-2.025263624874408,-0.26114944950477204,1.3271682316202036,-2.0707502701991527,1.6842886732504312,0.848644987330192],"bias":-0.5939172433754292}]}